<?xml version="1.0"?>
<opencv_storage>
<cascade>
  <stageType>BOOST</stageType>
  <featureType>HAAR</featureType>
  <height>24</height>
  <width>24</width>
  <stageParams>
    <boostType>GAB</boostType>
    <minHitRate>9.9500000476837158e-01</minHitRate>
    <maxFalseAlarm>5.0000000000000000e-01</maxFalseAlarm>
    <weightTrimRate>9.4999999999999996e-01</weightTrimRate>
    <maxDepth>1</maxDepth>
    <maxWeakCount>100</maxWeakCount></stageParams>
  <featureParams>
    <maxCatCount>0</maxCatCount>
    <featSize>1</featSize>
    <mode>BASIC</mode></featureParams>
  <stageNum>7</stageNum>
  <stages>
    <!-- stage 0 -->
    <_>
      <maxWeakCount>1</maxWeakCount>
      <stageThreshold>9.5588237047195435e-01</stageThreshold>
      <weakClassifiers>
        <_>
          <internalNodes>
            0 -1 5 -4.1653860360383987e-02</internalNodes>
          <leafValues>
            -9.8958331346511841e-01 9.5588237047195435e-01</leafValues></_></weakClassifiers></_>
    <!-- stage 1 -->
    <_>
      <maxWeakCount>3</maxWeakCount>
      <stageThreshold>-8.7265783548355103e-01</stageThreshold>
      <weakClassifiers>
        <_>
          <internalNodes>
            0 -1 18 2.8695873916149139e-02</internalNodes>
          <leafValues>
            -7.0334929227828979e-01 8.8746803998947144e-01</leafValues></_>
        <_>
          <internalNodes>
            0 -1 1 -1.0210264474153519e-01</internalNodes>
          <leafValues>
            8.0308175086975098e-01 -8.3060926198959351e-01</leafValues></_>
        <_>
          <internalNodes>
            0 -1 11 -2.8901414945721626e-02</internalNodes>
          <leafValues>
            6.6130071878433228e-01 -7.9040944576263428e-01</leafValues></_></weakClassifiers></_>
    <!-- stage 2 -->
    <_>
      <maxWeakCount>3</maxWeakCount>
      <stageThreshold>-7.9635941982269287e-01</stageThreshold>
      <weakClassifiers>
        <_>
          <internalNodes>
            0 -1 3 -3.2049164175987244e-02</internalNodes>
          <leafValues>
            7.9629629850387573e-01 -8.5714286565780640e-01</leafValues></_>
        <_>
          <internalNodes>
            0 -1 7 -6.2201537191867828e-02</internalNodes>
          <leafValues>
            -8.0710625648498535e-01 6.1489659547805786e-01</leafValues></_>
        <_>
          <internalNodes>
            0 -1 19 1.5232941135764122e-02</internalNodes>
          <leafValues>
            -7.8554946184158325e-01 5.8489781618118286e-01</leafValues></_></weakClassifiers></_>
    <!-- stage 3 -->
    <_>
      <maxWeakCount>2</maxWeakCount>
      <stageThreshold>-2.1578800678253174e-01</stageThreshold>
      <weakClassifiers>
        <_>
          <internalNodes>
            0 -1 15 -2.4559644982218742e-02</internalNodes>
          <leafValues>
            7.9723501205444336e-01 -8.7951809167861938e-01</leafValues></_>
        <_>
          <internalNodes>
            0 -1 16 4.1346624493598938e-02</internalNodes>
          <leafValues>
            -7.7986478805541992e-01 6.6373008489608765e-01</leafValues></_></weakClassifiers></_>
    <!-- stage 4 -->
    <_>
      <maxWeakCount>2</maxWeakCount>
      <stageThreshold>-1.5558807551860809e-01</stageThreshold>
      <weakClassifiers>
        <_>
          <internalNodes>
            0 -1 6 -5.9014007449150085e-02</internalNodes>
          <leafValues>
            -8.4713375568389893e-01 7.5169301033020020e-01</leafValues></_>
        <_>
          <internalNodes>
            0 -1 0 -3.6706224083900452e-02</internalNodes>
          <leafValues>
            6.9154566526412964e-01 -7.8830814361572266e-01</leafValues></_></weakClassifiers></_>
    <!-- stage 5 -->
    <_>
      <maxWeakCount>4</maxWeakCount>
      <stageThreshold>-2.8754103183746338e-01</stageThreshold>
      <weakClassifiers>
        <_>
          <internalNodes>
            0 -1 17 4.3620958924293518e-02</internalNodes>
          <leafValues>
            -7.3913043737411499e-01 6.5367966890335083e-01</leafValues></_>
        <_>
          <internalNodes>
            0 -1 2 -9.0028256177902222e-02</internalNodes>
          <leafValues>
            6.0594195127487183e-01 -7.2376036643981934e-01</leafValues></_>
        <_>
          <internalNodes>
            0 -1 10 -7.5681544840335846e-02</internalNodes>
          <leafValues>
            -5.5610656738281250e-01 6.4904242753982544e-01</leafValues></_>
        <_>
          <internalNodes>
            0 -1 4 -5.4701380431652069e-03</internalNodes>
          <leafValues>
            5.2630734443664551e-01 -6.6947060823440552e-01</leafValues></_></weakClassifiers></_>
    <!-- stage 6 -->
    <_>
      <maxWeakCount>5</maxWeakCount>
      <stageThreshold>-6.2189376354217529e-01</stageThreshold>
      <weakClassifiers>
        <_>
          <internalNodes>
            0 -1 9 2.7730192523449659e-03</internalNodes>
          <leafValues>
            -3.4387353062629700e-01 8.2708930969238281e-01</leafValues></_>
        <_>
          <internalNodes>
            0 -1 12 -1.3525683432817459e-02</internalNodes>
          <leafValues>
            6.1625301837921143e-01 -4.9433657526969910e-01</leafValues></_>
        <_>
          <internalNodes>
            0 -1 14 5.5311047472059727e-03</internalNodes>
          <leafValues>
            -7.6569515466690063e-01 4.1853955388069153e-01</leafValues></_>
        <_>
          <internalNodes>
            0 -1 13 -1.2283034622669220e-02</internalNodes>
          <leafValues>
            6.9961488246917725e-01 -4.1852584481239319e-01</leafValues></_>
        <_>
          <internalNodes>
            0 -1 8 -2.6959363371133804e-02</internalNodes>
          <leafValues>
            -8.9428693056106567e-01 3.2138836383819580e-01</leafValues></_></weakClassifiers></_></stages>
  <features>
    <_>
      <rects>
        <_>
          0 0 18 6 -1.</_>
        <_>
          0 3 18 3 2.</_></rects>
      <tilted>0</tilted></_>
    <_>
      <rects>
        <_>
          0 2 12 14 -1.</_>
        <_>
          6 2 6 14 2.</_></rects>
      <tilted>0</tilted></_>
    <_>
      <rects>
        <_>
          1 2 12 12 -1.</_>
        <_>
          7 2 6 12 2.</_></rects>
      <tilted>0</tilted></_>
    <_>
      <rects>
        <_>
          1 5 8 13 -1.</_>
        <_>
          5 5 4 13 2.</_></rects>
      <tilted>0</tilted></_>
    <_>
      <rects>
        <_>
          3 3 3 6 -1.</_>
        <_>
          3 6 3 3 2.</_></rects>
      <tilted>0</tilted></_>
    <_>
      <rects>
        <_>
          5 6 13 3 -1.</_>
        <_>
          5 7 13 1 2.</_></rects>
      <tilted>0</tilted></_>
    <_>
      <rects>
        <_>
          5 9 14 6 -1.</_>
        <_>
          5 11 14 2 2.</_></rects>
      <tilted>0</tilted></_>
    <_>
      <rects>
        <_>
          5 9 16 6 -1.</_>
        <_>
          5 11 16 2 2.</_></rects>
      <tilted>0</tilted></_>
    <_>
      <rects>
        <_>
          7 6 9 4 -1.</_>
        <_>
          10 6 3 4 2.</_></rects>
      <tilted>0</tilted></_>
    <_>
      <rects>
        <_>
          7 11 6 6 -1.</_>
        <_>
          7 11 3 3 2.</_>
        <_>
          10 14 3 3 2.</_></rects>
      <tilted>0</tilted></_>
    <_>
      <rects>
        <_>
          7 14 12 8 -1.</_>
        <_>
          11 14 4 8 2.</_></rects>
      <tilted>0</tilted></_>
    <_>
      <rects>
        <_>
          8 0 7 14 -1.</_>
        <_>
          8 7 7 7 2.</_></rects>
      <tilted>0</tilted></_>
    <_>
      <rects>
        <_>
          9 0 7 4 -1.</_>
        <_>
          9 2 7 2 2.</_></rects>
      <tilted>0</tilted></_>
    <_>
      <rects>
        <_>
          9 1 10 6 -1.</_>
        <_>
          9 1 5 3 2.</_>
        <_>
          14 4 5 3 2.</_></rects>
      <tilted>0</tilted></_>
    <_>
      <rects>
        <_>
          9 14 7 10 -1.</_>
        <_>
          9 19 7 5 2.</_></rects>
      <tilted>0</tilted></_>
    <_>
      <rects>
        <_>
          10 0 8 8 -1.</_>
        <_>
          10 4 8 4 2.</_></rects>
      <tilted>0</tilted></_>
    <_>
      <rects>
        <_>
          10 1 14 7 -1.</_>
        <_>
          17 1 7 7 2.</_></rects>
      <tilted>0</tilted></_>
    <_>
      <rects>
        <_>
          16 3 8 16 -1.</_>
        <_>
          20 3 4 16 2.</_></rects>
      <tilted>0</tilted></_>
    <_>
      <rects>
        <_>
          16 9 8 11 -1.</_>
        <_>
          20 9 4 11 2.</_></rects>
      <tilted>0</tilted></_>
    <_>
      <rects>
        <_>
          18 9 6 11 -1.</_>
        <_>
          21 9 3 11 2.</_></rects>
      <tilted>0</tilted></_></features></cascade>
</opencv_storage>
